
\data\
ngram 1=5
ngram 2=8

\1-grams:
-0.6190513	</s>
-99	<s>	-6.885247
-99	<unk>
-0.3394633	a	0
-0.5200813	b	0

\2-grams:
-0.2807584	<s> a
-0.3222944	<s> b
-0.70763	a </s>
-0.6780174	a a
-0.2261675	a b
-0.7991036	b </s>
-0.1237299	b a
-1.050158	b b

\end\
