
\data\
ngram 1=5
ngram 2=8

\1-grams:
-0.5850267	</s>
-99	<s>	-7.004176
-0.7447274	<unk>
-0.4685211	a	-7.272811
-0.6575773	b	-99

\2-grams:
-0.2839967	<s> a
-0.3187588	<s> b
-0.79588	a </s>
-0.5058454	a a
-0.2773661	a b
-0.7447275	b </s>
-0.1135093	b a
-0.9586073	b b

\end\
