
\data\
ngram 1=5
ngram 2=8

\1-grams:
-1.3010299957	</s>
-99	<s>	-7.446389
-99	<unk>
-0.6020599913	a	0
-0.6020599913	b	0

\2-grams:
-0.15490196	<s> a
-0.5228787453	<s> b
-1	a </s>
-1.5228787453	a a
-0.0604807474	a b
-0.5228787453	b </s>
-0.3010299957	b a
-0.6989700043	b b

\end\
