
\data\
ngram 1=5
ngram 2=8

\1-grams:
-0.3979400087	</s>
-99	<s>	-7.446389
-99	<unk>
-0.3979400087	a	0
-0.6989700043	b	0

\2-grams:
-0.3979400087	<s> a
-0.2218487496	<s> b
-0.6989700043	a </s>
-0.3010299957	a a
-0.5228787453	a b
-1	b </s>
-0.0222763947	b a
-1.3010299957	b b

\end\
